{"network": {"0": {"neurons": {"0": {"weights": [-0.19089421241425075, 0.7665733923971609], "bias": 0}, "1": {"weights": [0.6237778128171532, 0.249497832189433], "bias": 0}, "2": {"weights": [0.8032103055412139, 0.2658516324628466], "bias": 0}, "3": {"weights": [-0.5778677024877257, 0.9812996380340173], "bias": 0}, "4": {"weights": [0.44545554953099176, 0.7092453379886001], "bias": 0}, "5": {"weights": [-0.3123863693980362, -0.6721620149651852], "bias": 0}, "6": {"weights": [-0.7210466481463147, 0.011388808671725092], "bias": 0}, "7": {"weights": [-0.9141111981614007, 0.7353041230628903], "bias": 0}, "8": {"weights": [0.43517375267847025, -0.6583273233004916], "bias": 0}, "9": {"weights": [0.6564511608042192, 0.030290826219772526], "bias": 0}}, "activation": "ReLU"}, "1": {"neurons": {"0": {"weights": [0.8344009142262254, 0.055938040706081216, -0.13727005254631797, -0.5701915615134092, 0.5028154618682377, 0.9265576296947926, -0.022565509733037725, 0.5766762691352547, -0.31876306790330644, -0.829097160604291], "bias": 0}, "1": {"weights": [0.1940574975072984, 0.5016622877501045, -0.5138709856795038, 0.7964416923537794, -0.6332274848976769, 0.561542698140477, -0.13764614167323286, -0.09843281250260238, -0.041485412332185057, -0.20015535005085328], "bias": 0}, "2": {"weights": [0.4654893013214685, 0.31285051894558835, 0.9005046470627622, 0.7348809467252393, 0.517246048682714, -0.6102064436445165, 0.7596587188229407, -0.456291305967629, 0.8816810565970339, 0.06294168014012991], "bias": 0}, "3": {"weights": [-0.41691461336585434, 0.9175517961493347, -0.3783363789216436, 0.3239984635179083, -0.7903102603079886, 0.4521880270707659, -0.04447354559518346, -0.18962354348054178, -0.772016568225089, -0.8427154987115153], "bias": 0}, "4": {"weights": [-0.4763242399625902, 0.5440709474456151, -0.9025942087013652, -0.5047951137552227, 0.203521576512935, -0.27396242879916755, -0.7902288452885622, -0.796984906784683, 0.702130179593011, -0.5008473630889743], "bias": 0}, "5": {"weights": [-0.21948404420257095, -0.8736806693035861, 0.3357914228905228, 0.8361418029166854, -0.5510200349845988, 0.17765297127511004, 0.58645217754003, -0.4146919074550852, 0.1976119024838663, 0.40511190850635925], "bias": 0}, "6": {"weights": [0.6686619226537225, -0.5454844406694945, 0.6659017412811148, -0.040400052376847295, -0.012914277282046971, 0.2116166990445978, 0.7259917590801128, 0.9793025598498419, 0.5493450042981725, 0.6819192573638628], "bias": 0}, "7": {"weights": [-0.7395861124138494, 0.759429474361093, 0.530236666462677, 0.9908819802598754, 0.6492536659291885, -0.17896499683250533, 0.8007422607920318, -0.6948659817673368, 0.3062787612363187, -0.8099991231439128], "bias": 0}, "8": {"weights": [-0.11171083443663399, 0.16341087478340421, -0.396925392090437, -0.3793678133790306, -0.20682357060549972, 0.3628689608689686, 0.10667306304036361, -0.5669924952963707, -0.0975026354400359, -0.20878643897175686], "bias": 0}, "9": {"weights": [-0.37728908180282583, -0.9539543887079975, 0.6897746316441662, 0.03968788528098677, -0.6420013104551932, 0.5940832308386523, -0.12019800725445928, 0.06447861146286815, -0.9406648318231363, 0.4346950359254751], "bias": 0}}, "activation": "ReLU"}, "2": {"neurons": {"0": {"weights": [0.9666635740914251, 0.7705017937440237, 0.4480590507621587, 0.5111432094286652, -0.4520356726261301, 0.05701934499956729, 0.7908781294069938, -0.46056579480905135, -0.5372009741908486, 0.3824026389570141], "bias": 0}, "1": {"weights": [-0.18757113749657117, -0.6877075189385491, -0.9982045154474664, -0.244484008354251, -0.23103163766488732, -0.175356048500525, -0.42113709266103494, 0.36481887402593105, 0.5722181796344501, 0.6931876082191037], "bias": 0}, "2": {"weights": [-0.697980290682017, 0.2877621228859484, -0.44146698283840435, 0.8864184859849542, -0.8940487082989419, 0.007936749606610505, 0.43250644950705697, 0.2688286753015392, 0.8991018307083654, 0.34292010713799503], "bias": 0}, "3": {"weights": [0.11138449073255807, -0.1690099889699228, -0.16329556948717516, -0.4186427451087045, 0.22847903758790933, -0.28352198311431875, 0.24983020160819702, 0.10748176801299802, -0.30821802502453943, -0.6895557454728161], "bias": 0}, "4": {"weights": [-0.20382576908317884, -0.33203693611691, 0.4907224989821317, 0.08856195463726624, -0.3905199381064868, 0.14124314794463633, -0.04418950884288497, -0.7624628973631373, 0.4654699536339857, 0.13136191577403378], "bias": 0}, "5": {"weights": [0.004234577423887886, 0.8363555815223469, -0.1844426661068479, -0.6047825907932232, -0.155531267812123, 0.022179472585015514, 0.18598622595485303, -0.4260401539588907, -0.7457588133953412, 0.6802080938264325], "bias": 0}, "6": {"weights": [0.9837966066067148, 0.452065686458327, 0.5413712936039725, -0.5589837076593647, 0.42204227591387133, 0.9795896384485145, 0.8597480137064002, 0.11358842905229416, -0.4118403877465677, -0.6451611842363743], "bias": 0}, "7": {"weights": [-0.4005735978760421, 0.835168144869654, 0.4684518858605333, 0.04460189098743261, 0.9087897642122733, -0.602400368919711, -0.20588020679881658, -0.4263852953491494, 0.21875748478330626, 0.9545827822167734], "bias": 0}, "8": {"weights": [-0.46230457699413474, -0.6060286477407808, 0.9137929954447208, 0.3409688382274456, -0.805860020015817, 0.010108078125899533, 0.028622653826783973, 0.9588016154349939, -0.9088289885665746, -0.010783490290007913], "bias": 0}, "9": {"weights": [0.8534907636782887, -0.45333103379221673, 0.8224683656312348, 0.5996183696463797, 0.31955991000799466, -0.02452136460153964, -0.4242448413403166, -0.763905758606763, -0.42665412484611775, 0.022682451897315214], "bias": 0}}, "activation": "ReLU"}, "3": {"neurons": {"0": {"weights": [-0.63641136908741, 0.1650194148165458, -0.793658078803259, -0.47730125877324214, 0.9839545369839426, 0.8134785175085055, -0.15529648915775685, 0.38047863575294594, -0.4453680086969687, -0.8862903044118224], "bias": 0}, "1": {"weights": [-0.320985948723558, 0.9421392702435967, 0.26719715789383813, -0.8118486980345345, 0.01077983658403392, 0.7560057761994088, -0.3818264510405758, -0.3200085843863234, -0.3739896313082347, -0.7074427011763416], "bias": 0}, "2": {"weights": [-0.25547064692607924, 0.7575615460097163, 0.16111947614910638, -0.21255435938968237, 0.8976720508771132, -0.16306832091609635, -0.05609714285464573, -0.6325618768713897, 0.8624179444228952, -0.8833500892570949], "bias": 0}, "3": {"weights": [0.06908868235785248, 0.3458100100783721, 0.7661791234902715, -0.17501399822718544, 0.15117339733679924, -0.9871099033506718, 0.8561947209508751, 0.2097570145717016, -0.7852563639226922, -0.4671043582234351], "bias": 0}, "4": {"weights": [-0.6692998097245955, -0.27021796544366716, -0.21837939633481507, 0.47039255993018014, 0.46192900245400614, 0.5322559611395337, -0.44047792527433605, 0.10890677203249388, -0.2621980671245945, -0.6308710061012339], "bias": 0}, "5": {"weights": [0.3757087382857589, 0.6832860509787586, -0.6233891720576545, -0.9530479638865701, -0.907327905321784, -0.5383231697449611, -0.6030788804169498, -0.6024338145111996, -0.048181592257802386, -0.7063630292032455], "bias": 0}, "6": {"weights": [0.34465739434680853, 0.2243485092763422, 0.12324174029118429, -0.13001387285576116, -0.8019251917661903, -0.618265958127981, -0.6247907190963731, 0.5306172762366825, -0.961255637470249, -0.2897136927001389], "bias": 0}, "7": {"weights": [-0.7016253353637869, -0.23235551306815827, -0.828712849361815, 0.38615477635240514, -0.024222729665327014, -0.45850285545447433, 0.465717998783705, -0.03299086557118991, 0.7604525192531304, 0.48639178918872594], "bias": 0}, "8": {"weights": [-0.45987699759137435, -0.15318928129354847, -0.9415991939436386, -0.9621924862289717, -0.21323091975495623, 0.09141500389542889, 0.23352338155189445, 0.6836821255449712, 0.24681237812939893, -0.2649760854816523], "bias": 0}, "9": {"weights": [0.01956790972770417, 0.3221821907938198, 0.7232848273829313, 0.8286959258759783, 0.7149713759251033, 0.44543202759889833, -0.9483053406533666, -0.6475063392642835, 0.7451723392249687, -0.6941252737208614], "bias": 0}}, "activation": "ReLU"}, "4": {"neurons": {"0": {"weights": [-0.6428774070755088, 0.9284807476120078, -0.1385785864657112, -0.9236755537182306, 0.5929887207215432, 0.04264699890928014, 0.5134247204979983, 0.07200344897550748, 0.16147412596104416, -0.37474610879987913], "bias": 0}, "1": {"weights": [-0.7921587435724413, 0.8589163939504156, -0.5497587159198702, -0.0473643326844817, 0.7563002633974367, 0.904871956337761, -0.41805993680458364, 0.0994030901579741, 0.7063608130531898, -0.9665332868329708], "bias": 0}, "2": {"weights": [0.6334743549502471, 0.03890077740349751, -0.02339411596357821, -0.37536653399698827, 0.036495476249733816, 0.5518964891275941, 0.28685904847950505, -0.6521533265320978, 0.20799142269338544, -0.5558318904813202], "bias": 0}, "3": {"weights": [0.7792668422813875, -0.6826286014915941, 0.4143684794930851, 0.9141225983897383, -0.6311212397876695, -0.7571009862023934, -0.16387456831444114, -0.3875023724291191, -0.37126280802556666, -0.09664026860500918], "bias": 0}, "4": {"weights": [-0.42902283159252197, 0.3736728101814204, 0.837849309582458, -0.026409846786457303, -0.7897256093067562, -0.9653633600346527, 0.7890630892312385, -0.7847789712052378, 0.997063355508345, 0.829534467737473], "bias": 0}, "5": {"weights": [-0.7983508025947523, -0.3301671352474511, 0.560730296993087, -0.37138091642842386, 0.9433422839038585, -0.1297933164677767, 0.9299337027397925, 0.0009991510112410396, 0.16171825591780697, 0.7684617749668672], "bias": 0}, "6": {"weights": [-0.06619734990096093, 0.7112469219347455, 0.4779330005548277, -0.4511331775180074, -0.3427368026284838, 0.749590257457802, -0.8763434032046291, 0.3082880452185135, 0.8555738070603509, 0.7317356004252251], "bias": 0}, "7": {"weights": [-0.20118220151083577, 0.711826955801792, 0.9414294988949041, 0.09624289526165541, -0.11728442335036648, -0.8888525834074907, 0.09429893760646535, -0.6221359422784798, 0.6114677970680318, 0.775111319445535], "bias": 0}, "8": {"weights": [-0.6089099596901524, -0.6432855876314654, -0.11064180062070106, -0.7754918241159601, -0.9138423117840235, -0.3222203952479532, 0.7334119843534244, 0.9205161974495062, -0.8815882887601372, 0.14424872172659042], "bias": 0}, "9": {"weights": [0.8920325881722468, -0.4826685483750388, 0.9442668480731686, -0.09437847103676034, -0.7759680043908519, 0.6337120726999508, 0.528610195427333, 0.14007195406087058, -0.4003931070182356, -0.014650399568996164], "bias": 0}}, "activation": "ReLU"}, "5": {"neurons": {"0": {"weights": [-0.5573327587828041, 0.8734623772579193, 0.7749785498112294, 0.9516274060104839, -0.19268338869939727, 0.7637352870763943, -0.09158679738224218, -0.20860579296306092, 0.11627220056194898, 0.7128352521533836], "bias": 0}}, "activation": null}}}