{"network": {"0": {"neurons": {"0": {"weights": [0.350607646149141, -0.9338699846703247], "bias": 0}, "1": {"weights": [0.5588625574426802, -0.11222909458930053], "bias": 0}, "2": {"weights": [-0.7172707993186218, -0.7346136958440486], "bias": 0}, "3": {"weights": [-0.9362182806622199, 0.07106025994184417], "bias": 0}, "4": {"weights": [0.17219709350721124, 0.6087555430448339], "bias": 0}, "5": {"weights": [-0.08142792815498812, -0.9066895590003958], "bias": 0}, "6": {"weights": [-0.9907916562017118, -0.8534347886612534], "bias": 0}, "7": {"weights": [0.6793079427114113, -0.12442133603788341], "bias": 0}, "8": {"weights": [0.22450122899478964, -0.2833381590903612], "bias": 0}, "9": {"weights": [-0.24652029594003344, 0.5303656087146817], "bias": 0}}, "activation": "ReLU"}, "1": {"neurons": {"0": {"weights": [-0.8004283359135469, 0.8013447711635897, 0.39474871522827404, 0.5940053990286456, -0.2339928538021716, -0.8423212045965731, 0.9225110230878928, 0.8379226039588428, -0.8861281484852979, 0.6526271989953154], "bias": 0}, "1": {"weights": [-0.15109461516834366, -0.42577842144508926, 0.13404781409038846, 0.3404458477887291, 0.31115865236660345, -0.9228343000056762, 0.087077749052213, 0.46791587393069944, -0.7317997566834176, 0.9649836421271916], "bias": 0}, "2": {"weights": [0.28085072447073545, -0.21711342468522088, 0.4497907714399725, 0.0034085816861932905, -0.16604674365005923, -0.5230279012971788, -0.5035183190575621, 0.793526787436913, -0.7973463918976977, -0.547468078324143], "bias": 0}, "3": {"weights": [-0.07229712768409868, -0.527848357452064, -0.8778612905465601, 0.994978725733497, -0.4034979762726032, 0.4112932191422769, -0.8853495660613506, 0.5512046089750344, -0.10164202989325855, -0.6259815465066678], "bias": 0}, "4": {"weights": [-0.9074210876324322, -0.7881016738325355, 0.49158416319317144, 0.5752515253138846, 0.7643580935836758, -0.6814897095223922, 0.3721999136949352, 0.0037589999800913265, 0.49590640928583274, 0.8738922928779742], "bias": 0}, "5": {"weights": [-0.2371519702738989, 0.5672557762449093, 0.09431478533010074, 0.2024176682444916, -0.494659612041052, 0.9061692264619123, 0.44114725170394387, 0.6631265114718565, -0.023932792085196386, -0.1355979098873883], "bias": 0}, "6": {"weights": [0.3663775254791273, -0.9923689727245235, 0.691540350990681, 0.7083467200260243, 0.5315784917388131, -0.45520311580643247, -0.5432367031054708, -0.8179019074225282, 0.44564080744931167, 0.36598859525577443], "bias": 0}, "7": {"weights": [0.671051864544413, -0.7705708845933692, 0.16015504319210527, -0.0661313142520954, -0.9019075402612806, 0.37103730926063383, -0.7320657975245455, -0.34224143606394586, -0.946378042781673, -0.04246868226462941], "bias": 0}, "8": {"weights": [0.3624255993177803, 0.6868946947038315, 0.14024381219469806, -0.1711113838135332, 0.40085959533175597, 0.6961984882501642, 0.5004571692740742, 0.7173852110567764, 0.5459338914411906, -0.6403354847131435], "bias": 0}, "9": {"weights": [0.008983589189172303, -0.368327064731939, 0.5852828500470268, -0.02724756980513221, -0.975400094097914, 0.036405926832030255, -0.19971296952743134, -0.3882938640341944, 0.6402438617023065, 0.60765043412967], "bias": 0}}, "activation": "ReLU"}, "2": {"neurons": {"0": {"weights": [-0.43896228352947175, -0.2946608418418004, 0.6690280616598725, -0.7054881422862991, -0.9461600129798489, -0.6737528924585385, 0.01769325583873771, -0.2926353566699538, -0.31647586916829984, 0.4354144993242597], "bias": 0}, "1": {"weights": [0.05664347165018224, 0.25009693178990955, -0.4224987495416832, -0.8987255647490324, 0.7736485852899553, -0.3294297562350401, -0.3433126995330005, 0.4064543898023636, 0.9071579628200175, 0.35207458936644054], "bias": 0}, "2": {"weights": [-0.8628004052025919, -0.37126342437636906, 0.03353097664954574, -0.476384897996305, -0.7845338446452259, 0.33340522725345556, 0.6180167682451736, -0.0008312999918060893, -0.35255963264547163, -0.7493241125008276], "bias": 0}, "3": {"weights": [0.7916660783873786, 0.9018274862869233, 0.2483286270902989, 0.8086268056467811, 0.3056718322330114, 3.660832362162303e-05, 0.04484426129594654, -0.8861586896504208, 0.5085655446182791, -0.8360025750273128], "bias": 0}, "4": {"weights": [-0.06261172474381205, 0.47513007923357375, -0.2888860099531585, -0.5570249284682067, 0.916532694036525, -0.5265246081745194, 0.8216480740805032, -0.42839343359841964, -0.6692326852304189, -0.3711627981864454], "bias": 0}, "5": {"weights": [-0.8254324421389794, -0.1128709656200404, -0.7945679504403689, -0.5309414913998358, 0.5929089749831484, -0.6834795574406141, -0.7149518246958677, -0.31479729078681173, 0.25841493723766074, -0.7962513940551805], "bias": 0}, "6": {"weights": [0.4124658217509589, -0.37083725091842945, -0.5456484451179331, 0.7415278577441506, -0.7537863152336695, 0.43546739661611755, -0.29746050891245845, 0.9272935661141366, -0.1354897778382369, 0.8006520854426984], "bias": 0}, "7": {"weights": [-0.8633823770462494, -0.48406158226301566, -0.7321907243402375, -0.006542188162791174, -0.6113665593031514, 0.4871265208581801, -0.6842044557081752, 0.5493265140880521, 0.9580286014752892, 0.3389376732079632], "bias": 0}, "8": {"weights": [-0.20920129159154666, 0.09688674446378798, 0.032520732038330724, 0.41383902492142544, -0.18700803110803976, 0.779709232284179, 0.7830006817323618, 0.35351455511694896, 0.659462502680151, -0.4882372128219008], "bias": 0}, "9": {"weights": [0.9844425335901816, -0.8267885270923001, 0.1405072821645943, 0.7445198066241041, 0.24241550293708558, -0.12235618736369336, 0.654045879264822, -0.16012724459315741, 0.12418440589615898, 0.33895980587499763], "bias": 0}}, "activation": "ReLU"}, "3": {"neurons": {"0": {"weights": [-0.5930231002202275, 0.34730438678159303, 0.8344358309387236, 0.4172645105875079, -0.1304017493735612, -0.5600603283987973, 0.8294270088259434, 0.1513297409426415, -0.9893693239871744, 0.8968851155396971], "bias": 0}, "1": {"weights": [-0.5271167631453024, -0.4194466913497914, 0.3478639983545031, 0.8835093149150659, 0.3832421203640015, -0.7717281344904203, 0.17379898429648866, -0.5059510881581988, -0.46427537632059024, -0.3946997466711062], "bias": 0}, "2": {"weights": [-0.07562772932350814, -0.4333746044347624, 0.970675050398992, -0.7611019622505988, 0.2033826552625988, -0.14451451962605089, -0.18217830702344573, -0.9157289575513843, 0.7406154566819707, 0.237841743327305], "bias": 0}, "3": {"weights": [-0.5811050538833347, -0.44663695448663643, 0.8181430055442216, 0.27048348505117636, -0.34194788018956346, -0.41168787155082587, 0.023568240888240055, -0.34795308035756545, -0.738210395959997, 0.730454981895831], "bias": 0}, "4": {"weights": [0.2983717614465824, 0.3008225967315781, -0.5962410300125334, -0.09394122021227225, 0.4959272155403427, -0.36960226829882803, -0.4208522619693411, 0.024196019590957185, 0.9111105855493642, 0.5525848340535493], "bias": 0}, "5": {"weights": [-0.37870122021205654, -0.19116839587578638, 0.5595985525774543, -0.6623890970438739, -0.011492596951116596, 0.8556913300578248, 0.32536458899661547, -0.6244474753097466, -0.5256820120232275, -0.5054562604059871], "bias": 0}, "6": {"weights": [0.7095785323663415, 0.22985637135162618, -0.21109489576995433, -0.7623042927902233, -0.06331782115859741, -0.26146351679826374, -0.1196279424352793, 0.48086475045277055, 0.6369155118279544, -0.6767659303936921], "bias": 0}, "7": {"weights": [-0.14429476420591203, 0.3267761000552054, 0.7553990122823717, 0.6911310296352668, 0.19525645603596598, -0.8076025165981509, -0.7385537474343431, -0.4011950510830844, 0.9671356160501243, 0.9979924011611867], "bias": 0}, "8": {"weights": [-0.8728058347983298, 0.621853366427545, 0.6880855570941629, 0.515548740922428, -0.3624964281236618, 0.997336280359914, 0.11347862882572346, -0.7695583724443749, 0.2957475922967576, 0.803737773163917], "bias": 0}, "9": {"weights": [-0.23134021609847055, 0.6601819302737839, -0.7508072815208378, 0.6915974061912522, -0.729934515611373, 0.9771430845526123, 0.5485810596135758, -0.6709529580081228, 0.6499767420335061, -0.15764934068902203], "bias": 0}}, "activation": "ReLU"}, "4": {"neurons": {"0": {"weights": [-0.1712358821030635, -0.7255543774773254, 0.5049530952873329, -0.6228520664507693, -0.6376017157271463, 0.6627385292878345, 0.4162494319854968, -0.8383764471139172, -0.850931686637018, 0.0825715320339575], "bias": 0}, "1": {"weights": [-0.17011424290647104, 0.6979774570798583, 0.42358243286524244, 0.9487653489442733, 0.005730964024683871, 0.7034950924407433, -0.5257329194327318, -0.1592606205512126, -0.41294616867785283, 0.9229174216751763], "bias": 0}, "2": {"weights": [-0.46130684441164993, -0.7155914326221253, 0.8203773598153001, 0.21326894695530996, -0.8271862848691229, -0.5594610888379268, 0.28576681106312485, -0.7252275298960975, 0.19234595545078959, -0.8840611011096073], "bias": 0}, "3": {"weights": [0.6210217270440948, -0.6367872670516417, -0.25532447587642526, -0.9560426124518513, -0.436860396656934, 0.6697032542198089, 0.48820796181924364, 0.8585058109932389, 0.28962693455596233, 0.8896302662518103], "bias": 0}, "4": {"weights": [-0.7024867745210375, -0.47301846747151766, -0.18000333819533476, 0.8073623518636235, -0.5315734825559195, -0.7269670444110985, 0.8630381454787135, 0.7574373033441084, -0.9136561294544852, 0.40269048489470793], "bias": 0}, "5": {"weights": [0.21132314909549432, -0.8034696966516008, 0.3763283032138449, 0.962484501323037, 0.9058096727844289, -0.010054208191732528, 0.2734884407138156, 0.9142965011593356, -0.2857741952226003, 0.31370464577415147], "bias": 0}, "6": {"weights": [0.05891425342222467, -0.275478136938881, -0.07306729566789683, -0.3730751067914635, 0.19741748790429958, 0.8621098743066085, -0.02451445843930289, 0.1578370677350165, -0.8981737734441941, 0.2833979105420146], "bias": 0}, "7": {"weights": [0.45198783937871934, 0.6854839543800273, -0.7047285232073182, -0.7162002432490733, 0.08581713132307467, 0.22059199664423246, -0.5398998113150679, -0.55132432828061, -0.6996804871702766, 0.1411592363652796], "bias": 0}, "8": {"weights": [-0.05315498881014569, 0.842926071353552, 0.476933641294234, 0.061435606781444996, -0.23121101969924163, -0.7117628312432962, -0.37480605480879436, -0.2713943258616198, 0.3593781989960536, 0.17837246209168311], "bias": 0}, "9": {"weights": [-0.6999321449005582, 0.7763177146924423, 0.25330077937828577, -0.8239446505878623, -0.8313264904122455, 0.48798887702911187, -0.8128789003592303, 0.8627300040381041, -0.6952653313255135, -0.6259311135510965], "bias": 0}}, "activation": "ReLU"}, "5": {"neurons": {"0": {"weights": [0.31167099555840583, 0.6522836043806457, -0.9034580032590962, 0.9452950101470408, -0.8679226619717559, 0.8662382640001685, -0.27410111639392887, 0.8786664176830135, 0.36379342542083415, 0.5794186688940606], "bias": 0}}, "activation": null}}}